       30.808979      -116.19207     -0.72407961       0
       30.789228      -116.19730     -0.72912359       1
       30.766044      -116.20344     -0.73798513       2
       30.732554      -116.21231     -0.76162100       3
       30.744575      -116.20913     -0.79201889       4
       30.719671      -116.21572     -0.71955776       5
       30.696487      -116.22185     -0.82335234       6
       30.673302      -116.22798     -0.81310654       7
       30.650116      -116.23411     -0.80365896       8
       30.624357      -116.24092     -0.75701380       9
       30.635519      -116.23797     -0.76112938      10
       30.603748      -116.24636     -0.82336283      11
       30.580566      -116.25248     -0.82134151      12
       30.557381      -116.25861     -0.81690836      13
       30.538485      -116.26360     -0.71965027      14
       30.526465      -116.26678     -0.69694948      15
       30.511006      -116.27086     -0.68409061      16
       30.487819      -116.27698     -0.69068050      17
       30.463778      -116.28331     -0.69993210      18
       30.440591      -116.28942     -0.73024845      19
       30.429426      -116.29236     -0.73050737      20
       30.417404      -116.29552     -0.75027943      21
       30.394216      -116.30163     -0.77846909      22
       30.371031      -116.30773     -0.73985100      23
       30.347845      -116.31384     -0.74454021      24
       30.332389      -116.31791     -0.78305721      25
       30.320367      -116.32108     -0.76736355      26
       30.301475      -116.32605     -0.69136620      27
       30.278288      -116.33215     -0.69455528      28
       30.255099      -116.33824     -0.66802311      29
       30.235346      -116.34343     -0.63987637      30
       30.223322      -116.34659     -0.65249825      31
       30.208720      -116.35042     -0.64930725      32
       30.185534      -116.35652     -0.61238289      33
       30.162345      -116.36261     -0.60012054      34
       30.139156      -116.36869     -0.62937832      35
       30.126272      -116.37207     -0.62173653      36
       30.114246      -116.37522     -0.64212418      37
       30.091915      -116.38108     -0.65274143      38
       30.068723      -116.38716     -0.66789246      39
       30.045534      -116.39324     -0.66683102      40
       30.029215      -116.39751     -0.67141628      41
       30.017188      -116.40066     -0.69385433      42
       29.999149      -116.40539     -0.66880989      43
       29.975959      -116.41145     -0.66246891      44
       29.952764      -116.41752     -0.67409039      45
       29.932148      -116.42292     -0.66354704      46
       29.920122      -116.42606     -0.64929581      47
       29.905518      -116.42988     -0.67462635      48
       29.882327      -116.43594     -0.66302729      49
       29.859132      -116.44200     -0.64456701      50
       29.835938      -116.44806     -0.66117859      51
       29.823053      -116.45142     -0.64561892      52
       29.811029      -116.45455     -0.67277670      53
       29.789552      -116.46016     -0.68015146      54
       29.765504      -116.46643     -0.66592360      55
       29.742312      -116.47248     -0.68542194      56
       29.725133      -116.47696     -0.67303562      57
       29.713969      -116.47988     -0.68305874      58
       29.695933      -116.48458     -0.65352249      59
       29.672738      -116.49063     -0.67093801      60
       29.648690      -116.49690     -0.69781971      61
       29.627216      -116.50250     -0.69117641      62
       29.616047      -116.50541     -0.68006706      63
       29.602306      -116.50898     -0.68127823      64
       29.579114      -116.51502     -0.69073009      65
       29.555058      -116.52127     -0.66631603      66
       29.531866      -116.52730     -0.67035770      67
       29.518121      -116.53088     -0.66631603      68
       29.506952      -116.53378     -0.67322159      69
       29.485473      -116.53936     -0.66398907      70
       29.461422      -116.54561     -0.68627453      71
       29.438225      -116.55164     -0.68308926      72
       29.421042      -116.55610     -0.67513752      73
       29.409017      -116.55922     -0.67269135      74
       29.391838      -116.56368     -0.68489838      75
       29.367783      -116.56992     -0.66590118      76
       29.344582      -116.57593     -0.66545486      77
       29.323103      -116.58150     -0.65283012      78
       29.311073      -116.58461     -0.65694714      79
       29.297323      -116.58818     -0.67980099      80
       29.274124      -116.59419     -0.66120052      81
       29.250923      -116.60019     -0.67076969      82
       29.226867      -116.60642     -0.67130089      83
       29.213118      -116.60998     -0.64026356      84
       29.201948      -116.61287     -0.65675449      85
       29.189918      -116.61598     -0.67821026      86
